-0.0792275
0.0106932
-0.0439302
0.0854563
0.054661
0.00895466
-0.034655
0.0674741
0.0639755
0.0500488
-0.0705838
0.043377
0.0536803
0.00723887
-0.0437686
-0.0807035
-0.126359
-0.0420732
-0.116741
-0.0812656
0.207041
0.0312854
-0.0665685
-0.135546
-0.1788
0.0106969
0.0153508
0.00347623
0.0846192
0.0589473
-0.119482
0.0184406
-0.058518
-0.0605856
-0.140639
0.053216
0.203652
0.139064
0.0288768
-0.123584
0.0443574
0.0724217
0.104159
0.0407647
0.0934016
-0.0606597
-0.0531506
-0.0585013
0.0958361
-0.0603539
0.0802323
0.0851254
0.132543
0.111339
0.0141561
-0.0335823
-0.0420999
-0.0377593
0.0620193
-0.116483
-0.0191794
-0.0762936
0.027958
-0.0749756
-0.121927
0.0607098
-0.0630646
-0.0953448
0.110953
0.0499841
0.0586261
0.0103761
-0.0582424
-0.0334497
0.0453295
0.00524825
0.028375
0.125578
-0.00382096
-0.109354
-0.00628111
-0.0666168
0.0472966
0.00577354
0.135011
0.0237521
-0.0628332
-0.132954
-0.0147038
0.0841357
0.00720008
0.0969966
0.0922676
-0.0217086
-0.114782
-0.00317579
0.0233782
-0.0901178
0.0674458
0.0176457
-0.0405174
0.0983542
-0.0839294
0.072798
0.043438
-0.0368262
-0.0219633
-0.104951
0.0929654
0.0398637
-0.0760332
0.0883447
0.0575294
0.0144711
-0.0722215
-0.133935
0.128221
-0.0243465
-0.107998
-0.00199342
0.01097
-0.00778531
-0.0629127
0.0368917
0.026115
0.0792222
-0.01064
-0.0391172
-0.0786032
-0.0503769
0.0881675
-0.129271
0.0837976
0.0481618
-0.0462555
-0.111668
0.108603
0.0957833
-0.00249849
-0.0111123
-0.02407
-0.0253879
0.0251044
-0.0741453
0.0204335
-0.0453209
0.123513
-0.0214918
0.0694715
0.0187327
-0.0756115
0.0444787
0.0732191
-0.0166239
-0.00564338
0.0651944
-0.0956404
0.0986843
0.00654766
-0.0778349
0.0269451
-0.0332764
0.0530311
-0.0284632
0.0538901
-0.106241
0.00433574
-0.0722729
-0.105146
0.0602609
-0.0596439
0.136895
-0.0663543
-0.0255605
-0.13306
0.00626085
0.0990839
0.0526794
0.037206
0.0432585
-0.0306642
-0.082527
-0.159335
-0.123048
0.0869682
0.0913926
-0.0662842
-0.00846233
-0.0183675
-0.1309
-0.133303
-0.0577158
0.0865483
0.0405706
0.0357684
-0.0577621
0.00427857
-0.0533155
0.0229368
-0.0541241
-0.010168
-0.0470554
0.0122142
-0.00676579
0.026485
-0.0680324
-0.00463111
0.102057
0.0973995
0.113238
-0.0832075
-0.0493833
-0.0824798
0.0638155
-0.0765656
0.0941768
-0.115164
0.0456995
-0.0885205
0.0387727
0.0661735
-0.0856684
0.0379776
-0.0819224
0.0285209
0.0800593
-0.0034912
-0.011812
-0.00472339
0.0211434
-0.0758485
-0.062709
0.0327661
0.0653172
0.0829057
0.135324
0.00625128
0.0108505
-0.0245493
-0.0766175
-0.0274489
0.0558885
0.0388114
0.109719
-0.035161
-0.0501033
0.0109416
0.0272229
0.0165201
-0.0231036
-0.00354048
-0.102764
0.050345
0.028521
0.0182379
0.0486618
0.124654
-0.031181
-0.00669257
0.0774816
0.0488181
0.0135935
0.00303131
-0.0921095
-0.0266219
0.122585
-0.0447781
0.0286268
-0.0534224
-0.0212962
-0.0961756
0.0345664
0.160044
0.0980184
-0.0497114
0.0374174
-0.121789
-0.0416512
0.00326246
0.00737472
-0.0159459
0.0337208
-0.00155692
-0.021344
-0.0135748
0.0206455
-0.0879704
-0.0936823
0.0806368
-0.0292954
0.0894299
0.120785
0.0931569
0.0577727
-0.0500182
0.0737148
-0.0756686
-0.0798863
0.051823
-0.0191509
0.0258567
0.104452
-0.0848814
0.0820331
0.0719563
0.0025193
-0.128067
0.0183372
-0.0987874
-0.043525
0.0520154
-0.00908224
-0.0226454
-0.057739
-0.0114346
-0.0311941
-0.0183298
0.130958
0.0332477
-0.083598
0.10412
0.0652761
0.00405437
0.0585508
-0.141697
0.0962125
-0.0947172
-0.056393
0.0516986
0.0399643
0.0535396
-0.0175932
-0.0253946
0.133575
0.0517818
-0.115023
0.12139
0.0369509
-0.0420094
0.00199654
-0.0566983
0.064159
0.08142
0.00952741
-0.0937735
-0.0240757
-0.0984986
0.00313145
-0.0679852
0.0838541
0.0816265
0.0230948
0.0566243
0.11184
-0.154819
-0.0616839
-0.0147184
0.0411794
-0.0677371
-0.0987757
-0.103243
0.0552071
-0.0729365
-0.0630396
-0.0312793
0.102402
0.158344
-0.0103284
0.0316161
0.094167
0.0289992
0.144888
-0.125766
0.102803
-0.010986
-0.115787
-0.0736647
0.132842
-0.126238
-0.0545698
0.0342035
0.0412963
0.130318
-0.160994
-0.0194235
-0.0824159
0.0773627
-0.0469005
-0.00636949
0.0657012
0.0729163
0.0453126
0.0519797
0.0243468
-0.0329849
0.043128
-0.042455
0.0737436
-0.0581769
-0.0369262
-0.0518814
0.0786612
-0.155272
-0.0785505
0.107832
-0.0114589
-0.0758206
-0.0781509
0.0116118
-0.0233357
-0.0637154
-0.0952449
0.15404
-0.0656442
-0.127656
-0.122299
-0.102339
0.0488938
-0.0938924
0.0486762
0.222993
0.101713
0.03316
-0.00909492
0.0271081
-0.00837148
-0.0362788
-0.149339
0.089893
0.0728652
-0.0363829
-0.0892692
0.039096
-0.0519589
0.0577456
0.110375
0.0173597
0.0842482
-0.106353
0.0796072
0.0248465
0.0568234
0.00781809
-0.095232
-0.0504125
-0.0214029
-0.0978472
-0.00238977
-0.11427
0.0185894
0.032274
-0.125025
0.136389
0.00187838
0.0199012
0.0403706
-0.0373652
0.0565727
-0.0847387
0.0421401
0.0775627
0.0771918
-0.117466
0.0392296
0.000402485
0.0122319
-0.103286
0.0141674
0.176903
-0.0900839
-0.0511075
-0.130459
0.119301
0.032231
-0.0499389
0.0798366
0.00426332
0.0305693
-0.0560957
-0.102215
-0.0231111
0.00461073
0.10845
-0.0621121
0.103797
-0.0106154
-0.0999942
0.0492001
-0.0554645
0.0953491
0.0474146
0.0563553
-0.059402
-0.00759701
-0.103848
0.0631753
-0.0695869
-0.00559673
-0.0515885
0.0321632
-0.0489287
-0.11245
-0.125377
-0.0417168
-0.0854563
0.0255644
0.0531549
0.104246
-0.083892
0.0791953
-0.00955179
-0.00038299
0.0967265
-0.0106252
0.104594
0.00202938
-0.0155294
-0.0119671
-0.047801
-0.0392356
0.138307
0.00352259
-0.00714611
0.0191929
-0.080834
-0.0314198
-0.0555586
-0.127305
0.0900327
-0.0599725
-0.057129
-0.00600627
0.0396036
-0.0838537
-0.0764052
-0.0760933
0.039062
-0.00909257
0.0142792
0.0232844
-0.0129753
0.0386924
-0.0253829
0.0799669
0.0501017
-0.0413841
0.0801667
0.00887607
-0.0201893
0.0401401
-0.127202
0.0829185
0.00669053
-0.0150723
0.007366
0.0789561
-0.110057
-0.0376363
-0.094594
-0.0535551
0.127486
0.0491617
0.0731823
0.0520421
-0.0254572
-0.0525955
0.0187104
-0.0699984
0.0317344
0.0125818
-0.0356014
0.0993938
0.0241936
0.0167077
0.00743547
-0.115068
-0.0245783
-0.0397539
0.0647466
0.105173
-0.0120623
0.0115758
-0.0915188
0.069902
-0.0571979
0.00783798
0.0280036
-0.0244638
0.0406711
-0.0820654
-0.0934226
-0.070631
-0.0440637
0.00425613
-0.0491522
0.00448383
-0.0995459
-0.0490225
-0.142341
0.0266147
0.0043031
-0.0494864
0.038324
0.0806037
0.0211621
0.0055352
-0.138414
-0.019387
-0.0129753
0.132629
0.021562
0.113409
-0.00211145
0.0176275
-0.0127953
-0.0158809
-0.0163449
-0.000208421
-0.0698504
0.143989
-0.0698079
-0.127134
-0.099642
0.0279957
-0.023566
-0.0264408
0.0253506
-0.0715132
0.00622404
0.0136367
0.0123089
0.0387994
-0.0197756
-0.0241419
0.0653194
0.068439
0.0279687
0.105933
-0.0974391
0.025582
0.123922
0.0248244
-0.0590814
-0.0545439
-0.123065
0.0178349
-0.0525166
-0.102664
-0.147833
0.00582414
0.0726757
0.103037
-0.0288379
0.0843025
-0.0218594
0.0441542
0.142697
0.0768418
0.0377115
-0.0342902
0.024004
0.0410789
0.00822416
-0.0406106
-0.00139773
0.0933841
0.0564283
-0.00940503
-0.0981307
-0.0236581
-0.0781526
-0.078672
0.0852784
-0.0186815
0.100517
-0.0479367
0.0655419
0.0397052
0.0701415
-0.0739364
0.00515195
0.0868189
0.0513753
0.0732609
-0.0590989
0.0907679
0.0562312
0.101375
0.103034
0.105387
-0.0169412
-0.0526401
-0.00263345
-0.0483554
-0.0712472
0.0347237
0.0046317
-0.0527869
0.0339527
-0.0113098
-0.104367
0.121482
0.0717898
-0.103282
0.0116545
0.063789
-0.00822347
0.120387
-0.0803033
0.102404
0.0979076
-0.156683
0.00767812
0.072429
-0.0585073
-0.0901991
-0.0546765
0.0937098
0.0643801
-0.03263
0.00352905
0.0671975
-0.0329534
0.0537835
-0.0353229
-0.043294
0.0862743
-0.0562599
-0.0940807
0.0632372
-0.0800315
-0.116125
-0.0969824
-0.013196
0.0356868
-0.0260145
0.000642098
0.0210654
-0.146335
0.0121212
-0.00215874
-0.0168141
0.0261884
0.0599123
-0.0251075
0.0414235
-0.131866
-0.040956
-0.0644867
0.0629171
0.146032
-0.0521861
-0.0499495
0.0888194
0.00320736
0.110353
0.0359341
0.150294
-0.0323195
0.00878312
0.029603
0.111243
0.025875
0.0149039
0.0670052
0.183233
0.175315
-0.0797245
0.00859169
-0.0758156
-0.0101577
0.0917255
0.0132103
-0.0613525
-0.110663
0.0216134
0.0620598
-0.0889745
-0.089645
-0.04513
0.0380273
0.0611081
-0.0673933
-0.0599655
-0.160883
-0.0185237
-0.163256
0.106996
0.0999581
-0.120347
0.062959
-0.00246104
-0.052821
-0.0734879
-0.0528894
-0.0202703
0.0644663
0.057836
-0.113584
0.0103988
-0.14206
0.0378096
-0.0548594
0.167928
0.0776153
-0.0679965
-0.0549935
-0.0114549
-0.001465
-0.008121
0.0182789
-0.0992563
0.125398
0.0126638
-0.055241
-0.0635512
0.0654078
0.101071
0.073077
0.0524853
0.0541004
0.0873133
0.0240899
-0.0485318
0.0235603
-0.0431131
0.000804597
0.0156971
-0.0469161
0.0103226
6.80471e-05
0.105444
0.00440387
0.081488
-0.0284799
-0.041003
0.111758
-0.0334723
0.0566642
-0.0473356
0.00584964
0.0749278
-0.00788096
0.0775266
0.0120063
0.0114242
-0.00366113
0.0373987
0.0568355
-0.0382929
-0.0952266
-0.033323
0.109364
0.0235144
-0.00790669
-0.106439
0.0826614
-0.118828
-0.0147799
-0.0184822
-0.00273333
-0.10803
0.142307
-0.108342
0.0472002
-0.0891418
-0.0396316
0.0510885
-0.0108206
-0.0371755
0.0187919
-0.0229421
-0.00509884
-0.059762
0.0284697
-0.0873213
-0.00156334
0.00120485
0.0617613
-0.001783
-0.0915187
-0.0225928
-0.0428355
-0.134855
0.0914873
-0.0233364
0.027486
0.0417601
0.00699202
-0.00843628
0.0285596
0.0607835
0.0727326
0.00843832
-0.0398473
-0.121812
0.0982919
0.060196
-0.00128412
-0.100821
0.097234
0.00237591
-0.136556
-0.031761
0.137931
-0.109628
-0.076508
-0.0487217
-0.104616
0.000124556
-0.0694686
-0.0190435
0.0496534
0.0404977
0.0770263
0.0980545
0.052804
-0.0376552
0.0472207
-0.0334756
0.110217
0.0550325
-0.0649911
-0.0829518
-0.0197363
-0.0616142
0.00987227
-0.0471434
0.13559
-0.0481572
-0.0240495
-0.116906
-0.0818011
-0.120065
-0.151126
0.0566784
0.0474779
0.0661665
-0.113251
0.0155407
-0.0227488
0.0704016
-0.0503518
-0.0315409
0.112424
-0.0416724
0.0547429
-0.127677
0.0702437
0.0433064
0.01928
-0.12453
0.0673889
0.0130812
0.0460302
0.0826546
-0.0523578
0.0623758
0.0244247
-0.0917756
0.0423944
-0.0837137
0.036601
0.0778355
0.0584686
-0.0853089
0.0376107
-0.000373745
0.0830489
0.0786201
0.0552402
-0.0566147
-0.0144376
-0.00195874
-0.101285
0.0463577
-0.0557033
0.0948645
0.0532002
-0.104345
-0.0941598
-0.105965
-0.00187749
-0.103094
-0.0790407
0.0468397
0.0581978
0.0244636
0.103566
0.0357996
-0.10812
-0.024965
0.140528
-0.0356177
-0.0304688
-0.0714312
-0.114007
0.111201
-0.053637
-0.0776129
0.0565402
-0.0753207
0.0802299
-0.00775411
0.100175
-0.070195
-0.119446
-0.0767577
-0.0238707
0.0767926
0.104122
0.100263
0.0858222
0.0328354
-0.100118
-0.0774301
-0.0619322
-0.0251918
-0.0127419
-0.0791251
0.0833537
0.0270118
-0.00179685
0.0989389
0.0237099
0.0818258
0.074287
0.0647412
0.0444146
0.0551203
-0.0909864
-0.041083
-0.0837793
-0.0685065
0.101432
0.0740654
0.0360378
-0.0809727
-0.0252873
0.0575338
0.0775874
0.11461
-0.0542705
0.0641794
-0.0604531
0.0664218
0.0864702
0.0104155
-0.0934104
0.062836
0.0183198
-0.0616213
-0.0444307
-0.0292758
-0.140881
0.0847986
0.0302848
-0.0436376
0.0766219
0.10849
-0.0359466
-0.0791579
0.0464364
-0.064233
0.00993178
0.0667344
0.0651418
-0.0535536
0.00677853
0.110369
0.0688564
0.0422295
-0.0357011
0.0793338
-0.0636409
-0.0327976
-0.11074
0.0218554
-0.0230728
-0.0772165
-0.08434
0.0831984
-0.0713544
0.0863606
-0.0973154
0.12675
0.0653424
-0.00130912
-0.0163397
0.0654476
0.0237023
0.0761596
-0.026176
-0.0187439
0.0902682
-0.120021
-0.0681765
-0.0161126
0.0452193
0.0242141
0.0797031
0.082041
0.0323845
-0.0134332
0.0938035
0.0565715
-0.047116
0.0282958
-0.072903
-0.0769651
0.0446162
-0.0423353
0.0805317
0.00168668
0.0460643
-0.110555
0.0243585
-0.0770568
0.0347518
0.108728
0.0223606
0.0715189
-0.105727
0.0501817
0.0089858
0.0584813
-0.0387536
0.0698345
-0.0468092
0.0744238
-0.0647483
-0.120557
-0.0393666
0.124836
0.0175151
-0.0269549
-0.0566855
0.0226039
-0.00575541
0.111597
-0.020811
0.204452
0.00835509
-0.0401673
-0.101009
0.154303
0.0451514
-0.0343761
0.00844778
0.0948858
0.0640144
-0.0221104
0.0329313
-0.0917478
-0.00569186
-0.0253356
0.112432
0.0739706
0.0760157
0.0147389
0.0237239
-0.0824664
-0.0274104
-0.0618856
-0.00213199
-0.0863458
0.0772557
-0.0219959
-0.00665275
0.0974108
-0.0445066
-0.0566706
-0.00311158
-0.0363432
0.025723
-0.0619202
-0.0711059
0.0812177
0.062539
-0.043054
-0.0597557
-0.0166171
0.0674815
-0.0197995
-0.152437
0.104859
-0.146016
0.0935337
-0.00135322
-0.0923498
-0.13287
-0.0967083
0.0337317
0.111445
-0.104257
-0.0943667
-0.0471044
-0.0930945
0.0271352
-0.0233867
0.00522253
0.0918131
0.0392249
-0.0168971
0.0174771
-0.0209831
0.0778733
0.00365687
0.0803433
0.0545061
0.0522029
-0.00361923
0.0735038
-0.0359903
0.0927701
-0.0334167
0.0515565
0.0791135
-0.131681
0.0227958
0.0143512
-0.149054
-0.135658
-0.0844958
-0.0145074
0.0622183
-0.0896311
-0.0869853
-0.0583158
0.0692765
0.0756676
0.00431489
-0.00100343
0.0101066
0.00665678
0.113226
0.0874618
-0.124689
-0.0344409
-0.11265
-0.000766403
-0.136766
-0.0455388
0.0372002
-0.0279278
-0.0922596
0.0173847
-0.110956
0.0767823
-0.063169
-0.065661
0.0259275
-0.00911717
0.0592343
-0.0801565
0.0742192
-0.0600727
-0.101032
-0.0706374
0.0426157
-0.0478823
0.0152879
-0.0279827
0.017935
0.0382903
0.113689
0.0547284
0.0348737
-0.0805627
-0.158292
-0.0321121
0.0723555
0.0668821
-0.120577
0.0616202
0.078912
-0.0237052
0.0172763
0.0447684
-0.0732441
-0.0325759
0.142798
0.0898539
0.0441423
0.0110916
-0.118543
-0.106133
-0.0716517
0.0921214
-0.0672508
-0.035527
-0.0421632
-0.0147289
0.00769401
0.134992
-0.0374317
0.124514
-0.0474358
0.0330865
-0.0342645
0.0947337
0.000464464
-0.0426843
0.000407798
0.0214973
-0.0365783
-0.0354297
-0.0870253
-0.0376845
-0.0563108
0.084659
0.0604547
0.0895833
0.0596112
0.0477877
-0.118421
0.0319123
-0.136603
0.0125438
0.0777732
-0.0573644
-0.119522
-0.0107284
-0.0735864
0.06945
0.0331787
-0.00533525
-0.0241846
0.0569644
0.0822027
0.0886543
0.00209206
0.0167539
0.0610264
-0.0687874
-0.041857
0.0915542
-0.138962
-0.00449796
-0.0809603
0.0163538
-0.0634223
-0.0807273
-0.0912407
0.124623
0.007435
0.0543443
-0.068891
-0.00680952
0.0982964
0.0644028
-0.0429846
-0.0458232
-0.0413391
-0.0949441
0.0751555
-0.059395
-0.0814852
-0.0650174
-0.0210086
0.0788547
0.0608332
-0.0759362
-0.11558
-0.0894096
-0.0800475
-0.0033954
-0.0716222
1.4577e-05
-0.0917327
-0.016547
0.0543564
-0.0195222
-0.0674155
-0.0903331
0.0433205
0.104634
0.0443815
0.143796
-0.114863
0.0356351
0.13374
0.0462695
-0.0278481
0.0401941
0.0104164
-0.0504844
0.0997221
-0.0138405
-0.0906818
-0.098221
-0.0257328
0.0108659
0.0634487
-0.0159699
0.10311
-0.00409616
0.061814
-0.0638039
-0.101399
0.0204176
-0.0262241
-0.0291785
0.017782
0.098198
-0.0473116
0.0679174
-0.00871364
0.106129
0.049532
-0.0803803
-0.0764516
-0.0502659
0.0145013
-0.0406691
-0.0778264
-0.12574
-0.0921446
0.0524227
0.0919722
0.0286174
0.0899955
-0.145503
0.0245909
0.050886
0.115546
-0.0108443
0.0416046
0.0257793
0.150938
0.110972
-0.00133916
0.00811167
-0.0382185
0.0928286
-0.028013
0.0150063
0.0577629
-0.0823082
0.138256
-0.0530837
-0.0129883
-0.066793
0.0597511
-0.027204
-0.0481938
-0.0581403
-0.071343
0.0723445
0.0566324
-0.0947147
-0.0190056
-0.0885659
0.103792
-0.0912263
0.0341062
0.0901973
0.0294237
0.0313715
-0.0510416
-0.0347793
0.00547982
0.0450577
0.0669626
0.0461976
-0.0519121
-0.110167
0.0360807
-0.128763
0.0916464
-0.0379316
0.120081
0.0289168
-0.0285012
-0.0106628
-0.0139507
0.0180895
0.159421
-0.0582132
-0.115797
-0.0308627
-0.0305351
-0.029482
0.0961558
0.0398163
0.0276484
-0.0994556
0.0529078
0.02316
0.106146
0.013382
0.000150044
0.00842699
-0.00154139
0.00893235
0.0709624
-0.0329403
-0.0117392
0.0840212
-0.0170858
-0.0186984
0.0373633
0.0529582
-0.067713
-0.0600715
-0.0382055
-0.129523
-0.0538222
-0.00969788
0.0657833
-0.0372832
-0.044837
-0.0212129
-0.0515365
-0.068747
0.0649485
-0.0585592
0.17344
-0.0418039
-0.0643683
0.0226988
-0.00258607
-0.0993078
0.0496032
0.0691694
0.0393421
0.112948
-0.0215772
0.0740889
0.06115
-0.0698662
-0.026932
-0.0444536
0.0502982
-0.0103014
0.0624186
0.0911854
-0.0237397
0.00385357
0.0701581
0.0655284
-0.0809141
-0.101041
0.0444448
0.0793939
0.0313621
-0.0357766
-0.0263353
-0.0842121
-0.018235
-0.0594683
-0.0113457
0.0361231
-0.0734731
-0.10313
-0.0860358
-0.0354034
-0.11024
-0.106461
-0.0631362
-0.0922342
0.0222172
-0.0892088
0.0180248
0.0846716
0.0609511
-0.018576
0.0780263
-0.0999245
-0.033147
-0.0656494
0.0838837
-0.0625753
0.0618754
-0.115895
-0.0655993
0.111088
0.112012
0.0193502
0.058569
-0.122541
-0.0829063
-0.0149298
0.121717
0.09804
0.00983344
0.0623049
-0.0241614
0.104597
-0.000897113
-0.095248
0.0587196
-0.0728047
-0.0469699
-0.0301222
0.00892004
0.0013472
-0.0127232
-0.0673454
0.108052
-0.105927
-0.0715331
0.0318183
-0.0580614
0.044922
-0.125962
-0.117867
-0.00726718
0.0249122
0.00474622
0.0587921
0.0914786
-0.0537343
0.0126115
0.0888135
-0.109736
0.0861782
0.0418158
-0.0876547
-0.0738033
-0.0754077
-0.0924685
-0.0872418
-0.0802771
0.163274
-0.00903302
0.0461049
-0.0180221
0.0183316
0.0396848
0.139081
0.0562991
0.0969768
-0.0398451
-0.0543969
-0.0681869
0.0971618
-0.0667408
0.0711718
-0.0342597
0.101974
-0.0302968
-0.0394997
0.0168643
0.0800359
-0.0212249
-0.0102512
0.0465033
-0.0393728
0.0348235
-0.0242536
0.00160758
0.0459352
-0.0202027
-0.0254628
0.0703334
-0.00729835
-0.0769536
-0.0351213
-0.0743187
0.104747
0.0666659
-0.0140724
-0.0970445
-0.0372363
0.0224772
-0.0870939
0.0669125
-0.0746074
-0.0544078
-0.0674973
0.0533532
0.0922503
-0.000657695
-0.058958
-0.00286555
0.0805127
-0.0261762
0.0655335
0.0172292
-0.0380688
-0.0267232
0.124232
0.0598287
-0.0413006
0.0780525
-0.0930284
0.0426251
-0.0891058
-0.0825414
-0.0891851
-0.0161632
0.0213871
0.00935337
-0.0559631
-0.0709048
-0.0268999
-0.046814
-0.00613732
-0.148488
-0.0573678
0.0154124
0.00776336
-0.0366731
0.045895
0.0290249
-0.0833249
-0.0555743
0.0711252
0.0128719
-0.0408555
-0.0655868
0.0243197
0.121854
0.071317
-0.117937
0.0472603
0.0112906
-0.0253368
-0.0168142
0.105173
-0.0332315
-0.00122149
-0.0379942
0.132845
0.00750063
-0.00590399
0.0551406
0.0573962
-0.0704994
0.0345074
-0.0594012
-0.0252015
0.019152
0.0563241
-0.0333289
0.0770038
0.0450896
-0.0118529
-0.0514917
-0.0050127
0.0222836
-0.0256843
0.0457371
0.0121704
0.0281944
0.0751008
-0.137597
-0.115766
-0.104798
-0.0781202
-0.0591486
-0.0748404
-0.0681626
0.0323023
-0.0207777
-0.0621469
0.0322693
0.0638666
0.0650245
-0.0490748
0.129663
0.0316947
-0.104394
-0.00283904
-0.0719919
0.139397
-0.0300925
0.00718541
-0.148637
-0.0462734
0.0657851
0.0500483
-0.0615183
-0.0976963
0.0249041
0.109792
0.0357079
-0.0260038
0.00376134
0.112017
-0.0653532
-0.0250196
-0.0104638
-0.0301328
-0.0333292
0.0229691
-0.0668919
-0.0417687
0.0152547
0.0721493
0.0182641
-0.0379356
0.058038
-0.0356686
-0.0216242
-0.0423261
0.0866505
-0.0715704
0.0103695
-0.0999678
-0.0806429
-0.0721852
-0.0602728
0.00998324
0.0970429
-0.0296256
0.0168717
0.0338499
0.0128487
0.0490937
-0.0642008
0.0415589
0.0445866
0.109709
-0.0566412
0.103062
-0.0344759
0.0742194
0.0565869
-0.0501935
0.0929997
0.030182
-0.0382479
0.0735091
-0.0225378
-0.0255812
0.0869968
0.0760916
-0.0282836
0.00895696
-0.0746321
-0.0733021
0.0536896
-0.0197341
-0.0587322
-0.0687904
0.0171151
-0.0594482
-0.0155035
-0.0739264
0.0472273
-0.00386807
-0.000984214
0.00783897
-0.0738133
-0.0241265
0.0925382
-0.0680354
-0.0516504
-0.0737711
-0.00235924
-0.0929253
0.133095
-0.0693728
-0.0267837
0.00547331
0.0817363
0.0217812
-0.027901
0.0273818
0.0569853
0.0815383
-0.123215
0.0492392
0.0354796
-0.0631752
0.0885594
-0.0757616
0.0427265
0.044822
0.0519691
0.0210915
-0.0905019
0.0633449
0.0326228
-0.00151114
0.0313927
0.0402446
-0.0894894
-0.0966938
0.0199575
0.0453731
-0.055265
0.0591053
0.0717276
0.0371082
-0.0222362
-0.00874617
-0.00827361
-0.121933
-0.0485701
-0.0718379
0.0551562
-0.0967819
0.1153
0.00165806
0.0701407
0.062957
0.0741076
-0.0304022
-0.0174365
-0.0697465
-0.0362796
0.0156961
0.110821
0.0105675
-0.037004
0.095598
0.115836
-0.0504331
0.070695
0.111175
0.0389588
0.0962774
0.00787505
-0.011658
0.0259138
-0.0814372
0.091278
0.0198777
0.022739
-0.0713646
0.057411
0.0622413
-0.0749985
0.0125608
-0.0626808
-0.0447821
0.0548251
0.094327
0.0303603
0.078992
0.0122992
0.0802765
0.101641
0.00487437
0.00984862
-0.0196167
-0.0885176
0.0163409
-0.0997484
-0.0810426
0.0408771
0.00885649
0.138217
0.0917198
-0.0621681
-0.02065
0.0420085
-0.00843892
0.0209585
0.0501761
-0.0420517
-0.0929518
0.0635216
-0.0767719
0.0441894
-0.161456
-0.0835545
0.141856
-0.0119028
-0.00538842
-0.0719952
-0.025481
-0.0219406
-0.0284195
0.0737871
-0.0249419
-0.04464
0.0505849
0.100052
0.0920419
-0.00333087
-0.0304338
-0.0588147
0.102748
0.0496296
-0.0384473
0.0243182
0.0192037
0.0287741
0.0807693
0.0581713
-0.0458084
-0.070132
-0.0363825
-0.0110681
-0.01552
-0.130775
-0.0399008
0.00387619
0.0667058
0.110069
0.0389925
-0.0267994
-0.0854192
-0.0104279
-0.00562843
0.0317307
-0.0648623
-0.017113
-0.0981805
0.103392
0.00615912
-0.0864316
-0.133156
0.0250203
0.145907
0.0679708
0.0495964
-0.0569041
0.0188603
0.0321517
0.0612424
0.141754
-0.0594357
0.088217
0.0992541
0.0451009
0.0958332
0.0201264
-0.0723753
0.0699124
0.0263481
-0.0523037
-0.0707785
0.00171316
0.0777677
0.0370332
0.0735308
0.00735554
0.0966526
0.058251
0.0196308
-0.149596
0.0428247
0.00115011
0.102538
0.0676061
-0.0513377
-0.0898917
-0.0634501
-0.0438177
0.137554
0.0895218
-0.0473743
-0.0619507
0.0812695
0.0284186
-0.0384679
0.0716961
0.017621
-0.0225747
0.0259927
-0.020353
0.0929896
0.0593663
0.0478232
0.0233054
0.0476624
0.00742383
0.116006
0.0491249
-0.00748003
-0.00487086
0.0574702
0.0583253
0.0191607
0.0394234
-0.0485767
-0.0853126
-0.0802773
-0.0792835
-0.0149379
-0.0918857
0.0388085
0.075102
-0.0484782
0.0802437
0.0274901
0.118859
-0.0777123
-0.113653
0.00436368
-0.0153386
0.0556944
-0.0664668
-0.0643929
-0.0518661
0.0830197
-0.120772
0.0371569
-0.0640377
-0.00533119
-0.0468822
0.0714941
0.128724
0.100224
-0.00263098
-0.087539
-0.0720402
0.153912
-0.0248952
0.0594293
-0.0244925
0.0792865
0.00137133
0.148028
-0.001273
-0.00332608
0.0510326
0.0756622
-0.0131148
0.0786141
-0.0277833
-0.00697934
-0.0863544
0.0646281
0.0459364
-0.00587333
-0.0638698
-0.0898033
-0.073845
0.0272712
0.0615709
-0.0358823
-0.0305419
-0.0240398
0.0829105
-0.00564696
-0.0935361
0.0317334
0.0508686
0.0100507
-0.0389624
0.0590968
-0.0508179
0.0112976
-0.063844
0.0547066
0.0930142
0.0685882
-0.0158438
-0.101935
0.0889983
0.129189
0.0167139
-0.00404849
-0.0563015
0.085869
-0.067145
0.115175
-0.130684
0.0991009
0.011645
-0.0204274
-0.00839426
-0.00763174
0.0456808
0.10736
0.0913581
-0.0169448
0.0752504
0.0249893
0.104029
0.0834328
0.0232613
-0.0830573
-0.053037
-0.0471478
0.0376527
-0.0519138
-0.0338874
-0.0293624
0.103747
0.0326186
-0.0147299
-0.0686692
-0.0937397
0.0773575
-0.0641275
0.106859
0.0633768
-0.0804959
-0.0357366
-0.0593724
-0.0286762
-0.107445
0.081468
0.0751469
-0.021336
-0.124239
0.113767
0.0638678
0.0206365
-0.00135817
0.0262615
-0.0260911
-0.115406
0.111793
-0.143273
-0.0261795
-0.0327455
-0.12616
0.0284007
-0.0447022
0.0817751
0.0403784
0.017062
0.113684
0.0560983
0.065207
0.0310574
-0.0927341
-0.0436159
-0.0903764
0.0585616
0.0983946
0.000287308
-0.0423869
-0.00300376
-0.0806227
0.0233369
-0.0967269
0.0231025
-0.0600312
-0.0300306
0.0325777
0.0451557
0.0292655
0.053967
-0.0888454
0.0810219
0.0463492
-0.0601428
-0.104652
0.000524803
-0.0895965
0.0995321
-0.0511917
0.0845376
0.0433198
0.0793939
0.0356715
0.141059
-0.032096
0.122139
0.108303
-0.0212372
-0.0488926
-0.0272799
0.0345946
0.0839064
-0.0108381
-0.0646836
-0.0675988
-0.030476
0.00986892
0.00966367
0.0740767
0.0757907
0.00553685
0.0827956
0.0191347
0.092958
-0.0632499
-0.0640498
-0.0634693
-0.011537
-0.0418152
-0.0402333
0.0267747
0.0713293
0.033812
-0.0505415
-0.00370458
0.08891
-0.137694
0.137002
-0.0492146
0.0331606
-0.0694468
0.0745881
-0.0735691
-0.0706491
0.081522
-0.00997011
0.00948072
0.100017
0.0391539
-0.0493635
0.0255003
0.102186
0.0209516
0.186471
0.133852
0.079225
-0.0782017
-0.00713838
-0.00357545
0.0424657
0.0114477
0.0118631
0.0460917
-0.0486591
0.0767289
0.00364463
0.0886199
-0.0698648
0.0767789
-0.0907325
-0.00704602
-0.0202192
-0.0323361
-0.120608
-0.0326047
-0.0512594
0.0568626
0.0311279
-0.0878447
0.044041
-0.0855841
-0.00249364
-0.0601871
0.0118771
-0.0466135
0.0414519
-0.0075855
0.0282781
-0.00763866
0.0745822
0.105726
0.0552995
0.0493603
0.122502
0.112455
-0.0123401
-0.120914
0.0812689
-0.0666868
0.0593364
-0.0150331
0.048424
0.0942066
0.136407
-0.000265759
0.0719551
0.129177
0.0243068
-0.0478077
0.152042
0.0644192
0.0256749
0.115623
0.0321857
-0.030287
0.00943597
-0.0701614
0.0681147
-0.0556953
-0.0647251
0.0378179
0.0162622
0.016869
0.0285749
0.0988522
0.127524
0.018878
-0.013435
-0.0244193
-0.141902
0.0235326
0.0545806
-0.0184165
-0.0389647
-0.120491
0.143703
0.070067
-0.0605784
-0.0521967
0.0991177
-0.02994
0.0879714
-0.0718726
-0.0651405
-0.0942518
-0.080689
-0.0829209
-0.0891173
-0.0744849
-0.00643403
0.117268
0.0330316
-0.00775558
-0.0778247
0.098253
-0.0274026
-0.0286633
0.168231
0.0465529
0.0155602
0.104873
0.0377789
-0.0360702
-0.0263743
-0.0569772
0.0175619
0.0395584
0.0347945
0.0447741
-0.0277007
0.0118276
-0.0628127
-0.0195834
0.0206923
0.0805392
0.0746028
-0.102929
-0.147274
-0.114905
-0.0545776
-0.0134994
0.0903892
0.0474506
0.033898
-0.00766411
-0.0410263
0.143072
0.00828554
-0.0878952
0.101265
-0.0193228
0.0573432
0.135299
-0.0660021
-0.139843
0.00819229
-0.0213347
-0.0563099
0.0288984
0.104939
-0.100603
0.0445543
0.132105
0.0357038
0.0537318
0.115257
0.0463302
-0.0816112
-0.0616809
0.0327648
0.0594745
-0.0644171
-0.0417969
0.0409276
-0.0230756
-0.0344164
-0.00430703
0.0526629
0.0954047
0.0912875
0.068885
0.0358501
0.0611977
0.0604744
-0.0582853
0.0437501
-0.0336929
0.0465255
0.059348
0.0101065
-0.0758989
0.0214581
-0.097345
-0.0778618
0.0344509
-0.0438347
-0.106681
-0.0557739
-0.0153499
0.00855498
0.100944
0.00440397
-0.0550248
-0.0920953
0.00501855
-0.0470916
0.0783491
-0.136529
0.0543739
-0.155443
0.121664
0.057524
-0.068702
0.0094138
0.0113113
0.0642081
0.101825
0.104225
0.0322593
0.0348121
-0.0506597
0.0204718
0.0419802
0.0377557
0.0840864
-0.0189059
-0.070349
-0.0245528
0.0660923
0.0764783
0.0069582
0.111488
0.0215543
-0.125481
-0.0651255
-0.146655
0.117819
0.00928759
-0.0480174
-0.0222301
-0.0693281
-0.0972916
0.0330063
0.050595
0.0785706
-0.0592321
-0.0165911
-0.0095778
-0.0126452
-0.0792746
0.00491652
0.0432695
0.121471
0.0760347
0.131026
-0.0835694
-0.00277041
-0.0714466
-0.105513
-0.0294993
-0.0806607
-0.0229182
0.0438325
-0.086739
0.12291
-0.0100629
0.120943
0.0153028
-0.091166
0.0175384
-0.00659074
-0.0751437
-0.0244691
-0.0954438
-0.0433636
-0.0522593
-0.0934517
-0.0260974
-0.0191089
0.0906655
-0.0732357
-0.0205936
0.0906718
0.0123263
-0.0764129
0.0970546
0.035195
-0.139948
-0.0798814
-0.0311512
-0.0229675
-0.00930469
-0.0929114
0.0444649
0.0433687
0.024226
-0.0808733
-0.00775892
0.0818219
-0.054757
0.13969
0.0583288
0.12062
-0.123648
0.0419265
-0.132761
-0.0998396
0.000636601
0.0288614
0.0538521
0.0869916
0.0197593
0.0596395
0.0405763
0.118109
-0.0211826
-0.0990408
0.0437626
-0.0481309
0.0618758
0.0638669
-0.0691112
0.0746687
-0.00261085
0.0116995
0.0739952
-0.130385
0.0887726
-0.0364735
-0.0621059
-0.00595768
0.0234255
-0.109992
0.168123
-0.085591
-0.0663608
0.039628
0.0152475
-0.0753766
-0.114086
0.0918001
0.062261
-0.0898358
0.123438
-0.0575445
-0.0196263
-0.0214595
0.0758572
-0.104739
0.0302313
0.0757264
-0.00861893
-0.00414897
0.100959
-0.142456
-0.0470937
-0.0718073
0.0834611
-0.00894315
-0.013307
-0.0371128
-0.00504489
0.0256564
-0.0226384
-0.0388503
0.0193635
0.0484256
0.00106685
-0.0316871
-0.0669836
0.0987091
-0.0670726
-0.0332425
0.00619005
-0.0980349
0.116988
0.0479603
0.00715924
-0.00190371
0.0322542
-0.0944199
0.0908907
-0.0575208
0.0214748
-0.0565851
0.0303053
-0.12453
-0.0107791
-0.0408957
-0.0369592
-0.151312
0.0953632
0.100067
0.0713756
0.0672852
0.0691858
-0.00910618
0.211854
0.0623801
0.152263
0.026085
0.114629
0.0259221
0.0657994
-0.00564523
-0.0247614
0.00574761
0.051813
-0.0419236
-0.018055
-0.0708866
-0.020525
-0.052088
-0.0164945
-0.074815
0.00469964
-0.00642553
-0.110035
0.0648113
-0.065699
0.0287002
0.0994007
-0.0166297
-0.0918836
0.00823844
0.0336643
-0.0826651
-0.124227
-0.147017
-0.0326953
-0.0139148
0.0803613
0.0247649
0.00226213
0.121423
0.0297766
-0.0779994
0.0915205
0.111018
-0.0616896
-0.038799
-0.0106359
-0.0465621
-0.0369881
-0.0215819
-0.036046
0.0831648
0.127181
0.0478645
0.070665
-0.0259315
-0.0188061
-0.100459
0.0479789
0.0103999
-0.0773296
-0.0347996
0.0461698
-0.0820613
0.0873043
0.0428911
0.0653527
-0.0176766
0.00840193
0.00779567
-0.04596
0.0724032
-0.0636899
-0.0551608
0.0377663
-0.0326789
0.00107675
-0.0318902
0.0072058
-0.0567537
-0.124572
-0.016651
0.0913134
-0.0315053
0.101415
-0.0513005
-0.0592931
0.115585
0.116686
-0.0361839
0.00538444
-0.0433129
0.00701138
0.00468171
0.0454394
-0.160576
-0.0381576
-0.0792246
0.0770397
0.149589
0.0927918
0.0774516
-0.132867
0.0980195
0.0697716
0.0242964
0.10411
0.0459933
0.0405272
0.0660038
-0.021427
0.0898774
0.0322108
-0.0202739
0.0225726
0.0824644
0.0164654
-0.0815134
-0.0963168
-0.0231252
0.0295866
0.0774145
0.00150803
-0.0260137
0.00366966
-0.11057
-0.119838
-0.0289776
0.0435773
0.0682823
-0.0537079
0.0375954
0.0654116
-0.0581112
-0.0889162
0.000829606
0.012043
0.0309324
0.12062
-0.0861358
0.0299142
0.124574
-0.0806895
-0.143086
0.0650297
0.0539088
-0.05188
0.0372669
0.102651
-0.0947516
0.00929934
0.0541452
0.0533777
0.0392522
0.165877
-0.0365552
0.0349608
0.0829983
0.047705
0.067733
0.00571501
-0.0227324
0.0409879
0.0138253
0.0486368
-0.0491833
-0.0114072
0.0797472
-0.00046363
0.0528806
0.116526
-0.0637842
0.0738821
-0.0286281
-0.0204781
0.0641073
0.00513508
0.0345771
0.016827
-0.0780045
0.0299184
-0.0241861
0.00776958
-0.0346213
0.0278431
-0.00459343
0.0338337
0.0461363
0.066293
-0.019814
-0.0446986
0.00759782
-0.0645009
0.117237
-0.0660885
0.0601974
0.0053985
-0.0918733
-0.193335
-0.0216066
-0.0461797
-0.0669399
0.0739432
0.102095
0.0609918
0.0129498
-9.38737e-05
0.072822
0.0286152
-0.0292364
-0.0899748
-0.0556465
-0.0652883
-0.0797547
-0.107179
-0.0185547
-0.0813338
0.0451739
0.0846956
-0.0428392
0.0110759
-0.127667
0.0181769
-0.0455152
-0.0534384
0.113431
0.105901
0.0857534
-0.0337158
0.00613551
-0.117297
-0.043361
0.0619559
-0.110409
0.0388053
-0.133852
-0.0613963
-0.0793239
0.0317099
-0.0166539
0.0690647
0.123768
0.017505
0.100952
-0.0887903
0.0691393
-0.168876
-0.125581
0.0705956
-0.110482
0.11334
-0.0495184
0.0124239
0.101435
0.0170779
-0.0184084
-0.0844913
-0.0815375
-0.0115536
-0.0650856
0.0851634
0.0948447
-0.0932575
0.0684883
-0.0838014
0.054361
-0.0521542
0.0210048
0.125746
-0.135208
-0.132713
-0.0180538
-0.0370219
0.0406822
0.113544
0.00579658
-0.000547816
0.0547343
-0.0746618
-0.058152
-0.00455228
0.0253354
-0.0589138
-0.040746
0.131934
-0.0473658
0.0757929
0.0855117
0.0412912
0.0478076
0.0320941
0.0848126
0.0132921
0.0360941
-0.0402479
-0.0903512
0.017419
-0.0127399
0.00173692
0.0445131
0.064499
0.117822
0.105909
0.020566
0.0560413
0.050727
-0.00943459
-0.0117201
0.0630281
-0.106486
-0.0939841
-0.0339748
-0.0349776
-0.0392675
0.0570783
0.0336804
0.104302
-0.0292722
-0.0506684
0.0924886
-0.122143
0.0297267
0.212818
0.0646255
-0.101981
-0.0646197
0.0307903
0.0803866
-0.0743937
-0.0165757
-0.067604
-0.11635
0.0462333
0.0116615
0.120201
0.0699115
0.0525711
-0.0643479
0.167824
0.0802028
0.0511377
-0.101587
0.0647428
0.0849311
-0.0181972
-0.0224364
-0.0480741
0.0263618
0.0480255
0.0320496
0.0644699
0.0402335
-0.0188828
-0.0319163
-0.0528168
-0.0729325
-0.0560845
-0.0495138
-0.0963514
0.0333341
0.0479928
0.0255826
0.0426278
0.0172991
-0.022864
0.0254265
-0.000725916
0.116376
-0.0806211
-0.106805
0.19352
0.118679
0.0333378
-0.0790642
0.11025
-0.086725
0.0768002
-0.0537807
0.000249238
-0.0763316
0.0897826
0.0969044
-0.000522336
0.0111442
0.0355203
-0.0940289
0.16573
0.0286706
0.0721513
0.0371178
0.142075
-0.00972148
-0.0115101
0.0482809
0.100468
