0.0756921
-0.141139
-0.0812996
0.104767
-0.0540316
-0.0811073
0.0726849
0.0660426
-0.0256367
0.0850956
0.0457213
0.0620906
0.116555
0.163577
0.120855
0.0680241
0.162834
0.185346
0.0888565
0.140897
0.0986665
0.129191
0.0735875
-0.0137092
0.0691165
-0.076564
-0.136486
0.0787095
-0.0563992
0.00281421
0.060236
0.0036567
0.084015
0.132367
0.0996919
0.133798
0.0655531
0.0731801
0.0957038
0.0838969
0.121718
0.160385
0.112134
0.131372
0.0539209
0.0616315
0.0980732
-0.00487939
0.0613102
-0.111284
-0.18289
0.0830128
0.0246895
0.0470833
0.117877
0.0651305
0.0949636
0.117067
0.160284
0.165922
0.125798
0.0277266
0.17339
0.0141443
0.0635669
0.117324
0.0692246
0.0323252
0.0216846
0.131041
0.0486054
-0.062983
0.130208
-0.0625981
-0.161597
0.111293
0.00139258
-0.0505072
0.124451
0.0468627
-0.0350439
0.150897
0.11225
0.0799961
0.130168
0.129738
0.131437
0.0797169
0.0794739
0.0892493
0.0460322
0.0735442
-0.00368054
0.0944256
-0.00076663
0.0323215
0.122697
-0.0381542
-0.095861
0.096263
-0.0365479
0.0261702
0.17393
0.0255684
0.0347796
0.00865032
0.0522594
0.0514916
0.118007
0.0109394
0.0454427
0.135414
-0.00462554
0.0591858
0.092515
-0.0265826
-0.0215018
0.0433093
0.039867
-0.0321634
0.109124
-0.000761151
-0.0242113
0.0748842
0.00252564
-0.0246994
0.0464356
0.076842
0.0819927
0.0138495
0.0643377
0.0512774
0.0927956
0.0239046
-0.0630277
0.12256
0.0637541
-0.125299
0.036337
-0.0311912
-0.0627842
0.0689764
-0.0153656
-0.0470295
0.0807631
-0.0103432
0.0806847
0.0706733
-0.00955124
-0.0291483
0.0759544
0.0892842
-0.0680903
0.1291
0.0478416
-0.0532864
0.067567
-0.00310356
0.00750104
0.0585779
0.0147339
0.0326601
0.0920628
-0.0629784
-0.125865
0.0859577
-0.120642
-0.156336
0.0643338
-0.0395018
0.0511898
0.111332
0.00621829
-0.020573
0.0996588
0.0293591
-0.0879445
0.0593064
-0.0208062
-0.0195301
0.0840958
0.0249312
-0.0815488
0.0159173
0.0433969
-0.0689272
0.0447123
0.0324166
-0.139085
0.0275359
-0.0137207
-0.16343
-0.0066736
-0.00544045
-0.00322281
0.0014154
-0.00825612
-0.00296997
-0.0724032
-0.0240715
-0.0109223
-0.054594
0.054315
0.0852422
0.0470264
0.113455
0.127453
0.0439602
0.0733769
0.144411
-0.00560193
0.0606828
0.123415
0.00202725
0.135116
0.219102
-0.0740592
0.028528
0.00923594
-0.0376983
-0.00705158
0.000374803
0.0184413
0.0407327
0.0013699
-0.0260967
0.0114391
0.0803888
0.0300873
0.0644665
0.182035
-0.0193969
0.0952934
0.155668
0.00191774
0.0963138
0.151718
0.0563145
0.0972377
0.179227
-0.056784
0.0365038
0.0924651
0.0270461
0.079194
0.0561481
-0.014889
0.0249565
-0.00367429
0.0233158
-0.0252748
0.0175525
-0.0127935
0.138323
0.0834902
0.065864
0.183409
0.192637
0.0147401
0.102126
0.196837
0.0521004
0.0747671
0.161811
-0.0202932
0.091101
0.114394
0.0607159
0.0706473
0.124535
-0.0379962
0.113423
0.157614
-0.00072735
0.0896935
0.100701
1.61775e-05
0.103426
0.126608
0.0597905
0.0963376
0.161327
-0.041543
0.0361687
0.101293
0.0567177
0.00373973
0.104148
-0.0234544
-0.0175907
0.00258416
0.0115511
0.0466622
0.0518296
-0.0150134
0.0657045
0.118736
-0.00191101
0.0476506
0.167535
-0.0406582
0.12468
0.201534
0.0385941
0.0905171
0.117431
0.0133693
0.082307
0.152664
-0.00140525
0.0709613
0.131026
0.0591551
-0.00272113
-0.0683376
-0.00811675
-0.00119049
0.0165269
0.0454583
0.0546248
0.141128
0.00773059
0.175992
0.225983
-0.0163346
0.103665
0.196011
0.047646
0.087345
0.153279
0.0447093
0.112264
0.115166
-0.0165121
0.135491
0.122305
0.00737655
0.0129011
-0.0454981
0.0318814
-0.00269453
0.00217124
0.0338057
0.0646702
0.119152
-0.00540948
0.112083
0.129979
0.0593406
0.145438
0.0906359
-0.0241205
0.0976854
0.124273
0.054359
0.191198
0.167335
0.017787
0.141265
0.177552
0.0448861
-0.0140039
-0.0591239
-0.0177869
0.0235679
0.0212294
-0.0111626
0.0298575
0.0644582
0.0430295
0.109995
0.100312
0.0453337
0.0406894
0.0323422
0.0905903
0.133592
0.161782
0.0355267
0.160722
0.171379
0.0370242
0.0489247
0.187542
0.0535182
-0.121375
-0.201998
0.0296733
-0.0367846
-0.0168313
0.0674481
-0.0380777
0.0941552
0.126092
0.02939
0.0528136
0.0524433
-0.063493
0.0399466
0.0856117
-0.0755569
-0.0370806
0.0455657
-0.106359
-0.0218581
0.0137616
-0.106979
-0.00521018
0.0858534
-0.174164
-0.173375
0.0463102
-0.0186546
-0.0728847
0.129957
0.0114715
0.0497519
0.0347158
0.00372662
0.0710285
0.0886763
-0.00328902
0.0250731
0.0937474
-0.0580871
0.00608401
0.093388
-0.0567749
-0.0114733
0.0619931
-0.124724
-0.0106251
0.0488179
-0.169036
-0.112904
0.0358189
-0.0855715
-0.147632
0.0301254
-0.003444
-0.0188736
0.0865092
0.012483
0.072879
0.0728915
0.102784
0.00197802
0.113423
-0.0340716
-0.0290988
0.111257
-0.0223857
0.0327683
0.0111774
-0.110405
-0.0241379
0.000807483
-0.114792
-0.120278
0.0836277
-0.104532
-0.081841
-0.0107744
-0.0232582
0.0612311
0.0360498
0.0234982
0.0612545
0.0398387
-0.0437561
0.0871879
0.0506575
-0.0737004
-0.0246688
0.0792143
-0.0734912
-0.0196824
0.0733004
-0.0832796
-0.0785728
0.0308456
-0.127626
-0.133113
0.0399757
-0.0149237
-0.0906786
0.0117021
-0.0493075
-0.045214
0.122086
0.0256376
0.0887685
0.0790018
0.0610919
0.0842452
0.0357675
-0.0277753
0.0461483
0.0442931
-0.00602417
0.0267525
0.106961
-0.0882812
0.00687415
0.0287625
-0.0804873
-0.172217
0.0793017
-0.0739261
-0.0937206
0.116247
-0.0619154
-0.0574412
0.0893217
-0.0650059
0.050156
0.0986568
-0.0137657
0.0839686
-0.0167954
-0.0656914
0.0586063
0.104499
-0.0470036
0.0428253
0.0904971
-0.0129127
0.0771218
0.0705625
-0.112932
-0.184165
0.0778861
-0.0588222
-0.0485371
0.0935725
-0.0940597
0.0907239
0.0361339
-0.106826
0.0541202
0.0813398
-0.0131732
-0.0567399
0.0826479
-0.116484
-0.0953758
0.0759836
-0.0352343
0.0227038
0.0622157
0.0550395
0.174169
0.0452367
-0.057377
-0.118455
0.0174563
-0.0247144
0.00139035
0.0837814
-0.0956401
0.0748485
0.0984879
-0.0754366
-0.053725
0.0185488
-0.148985
-0.100008
0.147659
-0.115573
-0.0563664
0.0900972
-0.0589894
0.0587443
0.0877797
0.0247371
0.147598
0.0977864
-0.0701757
0.0155256
0.0182256
-0.0988489
-0.0272905
0.024405
-0.149027
-0.165831
0.0157611
-0.0497442
0.0166248
0.0379821
-0.0634077
0.0293738
0.110348
-0.0217422
0.108204
0.111663
0.052388
0.09688
0.0595754
-0.0182183
0.152339
0.023743
-0.018845
0.07057
0.0584424
-0.105303
0.0193865
0.0036527
-0.0428687
-0.0546093
0.0448985
-0.0930185
-0.00391852
0.100949
-0.00835655
0.0796538
0.0480877
-0.0550553
-0.0136746
-0.0185403
-0.0213828
0.0775075
0.0869273
0.0242691
0.112115
0.127384
0.133846
0.203149
0.0539374
-0.0715459
-0.0259297
0.0555614
-0.137022
-0.0900297
0.0546096
-0.147876
-0.158196
0.0680719
-0.0837077
-0.0628176
0.0651739
-0.0453318
0.03227
0.0795681
-0.0494835
0.0832191
0.0688118
0.00881843
0.0712775
0.00267494
-0.033813
0.144746
0.0274656
-0.0270059
0.132593
0.0772043
0.00631422
0.0172696
-0.0285535
-0.128262
-0.081147
0.00773901
-0.113009
-0.169171
0.0697069
-0.0533383
-0.0173239
0.0904346
-0.0665366
-0.0147522
0.0644002
-0.0174185
0.0660952
0.086378
-0.0295543
0.0724847
0.0467868
-0.070955
-0.0081118
0.0239899
-0.0491125
0.0385756
0.0729853
-0.204934
-0.15038
-0.02046
-0.181403
-0.0672172
0.0333069
-0.0813315
-0.0761986
0.0783448
-0.00402792
-0.0284261
0.034066
-0.0372594
-0.000327392
0.0732431
-0.0800847
0.0677898
0.0448439
-0.0678885
0.0530298
0.0523889
-0.115132
-0.0209233
0.0646868
-0.149095
-0.0348355
0.0559607
-0.180863
-0.041097
0.0835615
-0.116992
-0.00197429
0.050692
-0.0668399
0.037705
0.0180557
-0.0827604
-0.0126564
0.0241853
-0.017861
0.0907976
0.0464769
-0.165378
-0.0183465
0.0487731
-0.121522
-0.0825473
0.0660424
-0.0589949
-0.0021768
0.0430005
-0.10987
-0.059069
0.0213333
-0.0526471
-0.0111431
0.0311592
-0.0666691
0.0355697
0.0508689
-0.00343828
0.0724197
0.0468249
0.0041214
0.0615741
0.0609504
-0.02873
0.014706
-0.0158989
-0.175894
-0.0955783
0.0325369
-0.0901929
-0.0443937
0.0194792
-0.0113492
0.0180548
0.0331681
-0.0932484
0.033263
0.0647671
0.00116542
0.0913355
0.0809497
-0.00973156
0.0395403
0.0922436
0.235172
0.3085
0.114376
0.207164
0.241191
0.0550961
0.152796
0.159838
0.085593
0.0571547
-0.0103543
0.102985
-0.0339228
-0.030703
0.0505333
-0.0365973
-0.118251
0.0640533
-0.0704688
-0.135443
0.0960591
-0.0305036
-0.14125
0.109145
0.157977
0.230861
0.0568825
0.176236
0.208396
0.101918
0.0665268
0.0582552
0.111236
-0.0244451
0.0136873
0.0156892
-0.0828322
-0.0708775
0.0837082
-0.0259645
-0.0571314
0.15633
-0.0412729
-0.0831568
0.074728
-0.0253253
-0.0442435
0.0346015
0.117045
0.0896047
0.12008
0.160254
0.129606
0.0923769
0.0868923
0.0539028
0.082807
-0.0128729
0.0544919
0.0888093
-0.0484436
-0.103162
0.0635669
-0.0328113
-0.0594096
0.0995129
-0.0188034
-0.0359998
0.100459
-0.0180662
-0.0163077
0.111453
0.100669
0.00351785
0.128602
0.0639842
0.0269963
0.0580796
0.0128253
0.00375378
0.1102
0.00824019
-0.0664167
0.0856046
-0.0213859
-0.027202
0.0705231
-0.0190134
-0.00625035
0.0564515
0.0160738
-0.0110906
0.0964794
0.00167372
0.0489715
0.0643753
0.00361283
-0.0541032
0.0908902
0.0249851
0.0296357
0.133872
-0.0164591
-0.0465598
-0.00061393
-0.0181952
-0.00880461
0.0993132
-0.0108678
-0.0195556
0.123217
-0.0414388
0.0393575
0.0940805
-0.0152294
0.0634909
0.101404
0.0220032
0.0814303
0.135094
-0.0126019
-0.12588
0.10057
-0.0193764
-0.0674253
0.0708787
0.000825776
-0.0179972
0.05252
0.00548074
-0.0204635
0.0728604
0.0429686
0.0114005
0.110649
0.0799872
-0.00880673
0.0877929
0.0472556
0.00730736
0.0807144
0.0303327
0.0695255
0.0961077
-0.0482469
-0.0938699
0.0759167
-0.0103881
-0.130171
0.0501118
-0.0588704
-0.125793
0.107532
-0.0559573
-0.114597
0.0983462
0.0446597
0.0171465
0.0555655
0.0241579
0.095613
0.116678
0.0245197
0.0261449
0.0754902
0.000388171
0.0646124
0.054499
-0.103093
-0.114231
0.0378526
-0.109012
-0.198553
0.0835075
-0.0372713
-0.132377
0.093885
0.000778781
-0.048657
0.0976553
0.00748631
0.000836793
0.0726027
0.0822982
0.0972304
0.0835199
0.0769926
0.0594023
0.0857434
0.0645975
0.0926544
-0.023185
0.0598537
0.142032
0.0336956
-0.0173744
0.0641576
0.0814956
-0.0240134
0.0550799
-0.0304536
-0.128247
-0.00124403
-0.00554046
0.0161606
0.0341394
-0.0357271
-0.0371819
0.0516176
0.00996309
-0.0189362
0.136165
0.0148913
0.0743018
0.15041
-0.0054268
0.0288983
0.082414
0.0164876
-0.0507507
-0.0394971
-0.0298554
-0.144412
-0.0439378
-0.0220484
-0.0643776
-0.0682541
1.12821e-05
-0.0241282
0.0108304
0.00569258
0.0171853
0.0853786
-0.0207906
-0.0255891
0.111225
-0.0422785
0.0292592
0.169656
-0.02391
-0.144633
-0.0792904
-0.01597
-0.155228
-0.00927273
-0.00974376
-0.0852203
0.00760465
-0.0694293
-0.0815782
0.000874136
-0.0603642
-0.0555682
0.186085
0.0172768
0.0198896
0.102024
-0.0688603
0.00503639
0.0866331
-0.00542502
0.0786301
0.234407
0.0356702
-0.140113
-0.105329
-0.0583722
-0.179135
-0.17082
0.0257932
-0.231672
-0.161277
0.0224176
-0.107761
0.0214932
0.0304422
-0.025813
0.10022
0.0349999
0.053054
0.159607
-0.0284961
0.0236918
0.244049
-0.019826
0.10817
0.18197
-0.0681875
-0.0835704
-0.0558618
-0.00362869
-0.184964
-0.0994474
-0.0218425
-0.105877
-0.0841274
0.0222563
-0.0201852
0.014875
0.0116247
-0.053188
-0.00920634
-0.0218406
0.0737626
0.0918864
-0.032624
-0.0256225
0.122189
0.027372
0.112594
0.232853
-0.057644
-0.128606
0.000716494
-0.0467335
-0.17273
-0.104377
-0.0218766
-0.0731018
-0.081549
0.0195516
-0.0490682
-0.0897198
-0.0478212
-0.0205613
-0.062677
0.00324961
-0.0485541
0.0657056
-0.00800456
0.0446698
0.164523
0.0223296
0.0967992
0.187774
-0.0455208
-0.0782234
-0.0417765
-0.0142262
-0.059455
-0.0252505
-0.0349053
-0.0433094
-0.0298826
-0.0227914
-0.0658963
-0.0468665
-0.0427008
-0.115508
0.00942189
0.0287634
0.00762222
0.0271311
0.00272656
0.0634068
0.143953
0.0352135
0.0154201
0.0821052
0.0197112
-0.116676
-0.107034
0.0401756
-0.137092
-0.0498228
-0.00524915
-0.0171921
-0.0110389
-0.0215819
-0.0855255
-0.0367975
0.0310826
-0.0771471
0.0317499
-0.0355179
-0.0405802
-0.0159881
-0.0251236
-0.0482572
0.0668444
-0.00144965
-0.0429165
0.0906254
-0.0449555
-0.0725404
-0.00930498
-0.0825687
-0.0804299
-0.0343987
-0.136298
-0.112042
-0.110113
-0.0988213
-0.0689908
-0.128044
-0.0583898
-0.153136
-0.119008
-0.0656536
-0.00305996
0.00967821
-0.0752731
-0.0413356
-0.0525259
-0.0291473
-0.0799627
-0.00963728
-0.0383378
-0.0682727
-0.0109049
-0.103491
-0.0420071
-0.0117009
-0.0728699
-0.153305
-0.10979
-0.0621864
-0.178603
-0.0692454
-0.111416
-0.181964
-0.0709387
-0.0565084
-0.0799247
0.0390495
-0.000372892
-0.0655673
0.0528348
-0.00966303
-0.0106955
-0.0022233
-0.106052
-0.0263747
-0.0841222
-0.0635364
-0.0135943
-0.0991668
-0.0783852
-0.089115
-0.136215
-0.0169247
-0.11325
-0.0634746
0.00379363
-0.0815825
-0.0974065
-0.104287
-0.104094
0.0654838
-0.0235243
-0.0196631
0.0703186
-0.0323817
-0.0123626
0.0414637
-0.0694474
-0.0935968
-0.134544
-0.0356395
-0.0901369
-0.093691
-0.105822
-0.110846
-0.124039
-0.0693145
-0.066157
-0.0844496
-0.0300131
-0.0361141
0.0598346
-0.08868
-0.0273712
0.0791303
-0.0395996
0.0249072
0.0291577
-0.0645923
-0.0621463
0.116406
-0.0633788
-0.13542
-0.189798
-0.0853878
-0.146437
-0.13359
0.00702454
-0.0777132
-0.0468028
-0.132049
-0.00301123
0.0547994
-0.0216654
-0.0586661
0.118848
-0.0360252
-0.068318
0.101263
-0.00191473
-0.00838489
0.10506
-0.0664782
-0.106927
-0.0522722
-0.0388372
-0.134615
-0.239907
-0.0584601
-0.0927754
-0.14731
-0.0913946
0.0202323
0.0765964
-0.0962345
0.0309284
0.153229
-0.0120634
0.0172543
0.10553
-0.00990438
0.079692
0.018051
-0.0791963
-0.0251949
-0.0290057
-0.0509629
-0.160243
-0.0560058
-0.040206
-0.150798
-0.0996644
-0.124309
-0.0821873
-0.114268
-0.0797759
0.00677057
0.017913
-0.0356585
0.0734669
0.0481073
-0.0696609
0.106031
0.156488
-0.0947724
-0.0116416
0.1281
-0.0685365
-0.172456
-0.108917
-0.0776957
-0.166525
-0.0836165
-0.115247
-0.150492
-0.0986154
-0.069864
-0.0192021
-0.0852088
-0.056883
0.0154786
0.0203126
-0.0407124
0.0686369
0.161416
-0.0625587
0.0921116
0.110312
-0.0922068
0.0268472
0.101225
-0.0267787
-0.0283731
-0.0483306
-0.0894187
-0.0984933
-0.147783
0.035064
-0.116446
-0.170784
0.018896
-0.0513587
-0.181721
0.0296893
-0.0228703
-0.179964
0.0134773
-0.0624315
-0.120266
-0.0134741
0.0304932
-0.117113
0.00972792
-0.0373486
-0.0848973
0.0180121
0.00557106
-0.109334
-0.00258027
-0.0498746
-0.127862
0.0103759
-0.0184786
-0.142153
0.035741
-0.0735105
-0.155827
-0.0203422
-0.0666102
-0.107921
-0.00194145
0.00229275
-0.0930413
0.0441759
0.00328548
-0.145468
0.00416026
-0.055443
-0.125108
-0.0367594
-0.00773108
-0.180864
-0.021535
0.00146812
-0.0934765
0.0435219
-0.0507717
-0.115319
-0.0309371
-0.0488012
-0.12711
0.0173702
-0.0064432
-0.139393
0.0256864
0.0328071
-0.121286
0.027408
-0.0389665
-0.0728231
-0.0386992
-0.0480538
-0.137338
-0.00148056
-0.0698131
-0.142753
0.0243326
0.0455134
-0.0786793
0.012248
-0.0649523
-0.171805
0.0305951
-0.042092
-0.128799
0.0249521
0.0305953
-0.125411
0.00493853
0.0317845
-0.0728261
-0.00568007
-0.0281437
-0.103249
0.00450227
-0.00702029
-0.104773
-0.017734
-0.00600801
-0.105151
0.0448514
0.0390336
-0.0149203
0.0394083
-0.0488609
-0.167662
0.00340568
-0.0306061
-0.0841547
0.0336653
0.042796
-0.0322889
0.0138162
0.00213614
-0.0764954
0.0136836
-0.057769
-0.116084
0.0147009
-0.00897828
-0.0683807
0.00747841
0.0263327
-0.0845552
0.0270946
0.178714
0.132122
-0.000769219
-0.00122092
-0.0831413
-0.00898903
-0.0185563
-0.0777277
0.0118206
0.0526843
-0.0432662
-0.0267449
0.000384705
-0.0431299
0.0420115
0.00555242
-0.104073
0.00192939
0.0401027
-0.103357
0.0125344
0.0735417
0.129272
0.0489811
0.18729
0.230921
-0.0129032
-0.00370882
0.0158399
0.0038095
-0.0389364
-0.0561313
0.0342058
0.059487
-0.0825797
0.0426116
0.0549975
-0.0151939
0.00712921
0.0614072
0.0280218
0.0357391
0.104138
0.0842747
0.0661886
0.150576
0.135992
0.0709922
0.183066
0.251272
0.00467337
0.0249999
0.00705208
0.0521505
0.0562326
0.00610137
0.0193446
-0.0243371
-0.10306
0.00305412
0.00511089
-0.0276767
-0.00860978
0.122632
0.0247822
0.0428431
0.173076
0.121008
0.0341858
0.290056
0.281237
0.0275546
0.264311
0.240876
-0.0353278
-0.13687
0.0677543
-0.0431089
-0.0642049
0.093325
-0.0180427
-0.00487018
0.151884
0.0125247
-0.0794074
0.0878998
-0.0719625
-0.0960233
0.0569487
-0.072516
-0.100948
0.040364
-0.0570118
-0.0666498
0.0375122
-0.0403315
-0.136717
-0.0492083
0.00205837
-0.0992814
0.100028
-0.0275023
-0.0587623
0.16644
-0.0626025
-0.0434671
0.202757
-0.012764
-0.00982251
0.163365
-0.0743697
-0.0831364
0.0178193
-0.045406
-0.115327
0.0355481
-0.0402366
-0.0679117
0.00360431
-0.0858931
-0.0866269
0.00116721
0.00462073
-0.0758247
0.0984808
-0.0588918
-0.034214
0.199205
-0.0144967
-7.93435e-05
0.21777
-0.0272859
0.0572117
0.215448
-0.0277291
-0.131623
0.0851817
-0.112367
-0.160939
-0.00776405
-0.0434944
-0.108122
-0.00807852
-0.0645144
-0.083546
-0.0124253
-0.0127889
-0.0712998
0.0976436
-0.0400186
0.00310707
0.17649
-0.00717572
0.0192798
0.187445
-0.0115703
0.00648162
0.172863
-0.0432189
-0.0628889
0.107757
-0.0842269
-0.0986323
0.0273529
-0.0326468
-0.0302781
0.0421119
-0.0584789
-0.036648
0.0790737
0.00174758
-0.00960421
0.153785
-0.0428491
0.0239256
0.243983
0.00410424
0.0152215
0.204199
-0.0507792
0.0172215
0.163161
-0.00501685
-0.0370932
0.103817
-0.0376436
-0.0736794
0.130022
-0.0523827
-0.0493243
0.0802204
-0.0485754
-0.0248291
0.104608
-0.0652812
0.0114515
0.210671
-0.0196384
0.0276171
0.211478
-0.0481181
0.0224397
0.188177
-0.0683093
-0.0589226
0.13726
-0.000608016
0.00255686
0.138663
-0.0690447
0.0149994
0.103353
-0.0833337
-0.074677
0.137778
-0.0314444
-0.0179772
0.169781
-0.0334121
-0.0211761
0.20394
-0.0472962
-0.00571601
0.188086
-0.0499439
-0.00503989
0.13679
-0.00698123
-0.0312779
0.160045
-0.0591268
0.0100738
0.222929
-0.023274
0.0152848
0.219975
-0.0550411
-0.0439762
0.126432
-0.0451495
-0.0408328
0.1259
-0.0843446
-0.0169839
0.192351
-0.0447553
-0.00292667
0.154437
-0.0101536
-0.0143909
0.117816
-0.0622161
-0.0342025
0.153383
-0.0689392
0.046291
0.186898
-0.0832662
0.0367776
0.17091
-0.0630821
0.0373821
0.156249
-0.067001
0.0698951
0.105024
-0.00473011
0.00649382
0.0551844
0.00337369
0.00955708
0.0584777
-0.0612922
-0.00939045
0.0963093
-0.00505626
0.0723328
0.0874751
0.00847574
0.0249126
0.0752477
-0.0184869
0.0879957
0.0937805
-0.0614831
-0.00934023
0.0543938
-0.00862113
0.0652998
0.17781
0.0248209
0.00124526
0.0140217
-0.00164146
0.0602593
0.0291174
0.0598432
-0.0471531
0.0262289
-0.0356347
-0.0386972
0.0195446
-0.0106715
-0.0737309
0.0194391
-0.00904904
-0.0290733
0.138428
0.0637199
0.0128568
0.0978334
0.0721647
0.0794442
0.137015
-0.0844397
-0.0393361
-0.0133439
-0.0319446
0.0441996
-0.0559967
-0.0477543
0.00459898
-0.0643548
0.0537639
-0.0151301
0.00785832
0.0577451
0.0378381
-0.0439322
-0.0461783
-0.0733772
0.0499623
0.0279287
0.0144824
0.0510963
0.0203882
0.06312
0.149562
-0.00544969
0.112536
0.087743
0.0523564
-0.0159916
-0.0752566
-0.106968
-0.0976003
-0.0921864
-0.0149992
-0.0595125
-0.120595
0.0030602
-0.0766228
0.0196858
-0.0683945
-0.101082
-0.0246535
-0.0124347
-0.0231227
-0.0280705
0.0207281
-0.0344066
0.135933
0.0199406
0.0512204
0.100876
-0.0262441
0.0103448
-0.0231994
0.00222171
-0.0853273
-0.10712
-0.0825091
-0.0527643
-0.0991246
0.0233602
-0.107023
-0.0904498
-0.00542543
-0.130673
-0.0119204
0.0290784
-0.0398438
0.0444872
0.0106368
0.0254182
0.103002
0.0145488
0.18225
0.0649024
-0.00317731
0.119433
0.0583329
-0.05077
-0.0115601
-0.0115308
-0.0852919
-0.0565582
-0.0667637
-0.00451164
-0.125564
-0.142793
-0.045606
-0.0518938
-0.141972
0.0209062
0.0293691
-0.0213627
0.0669274
0.0268693
0.149325
0.056068
0.0555888
0.156123
-0.0527189
0.153049
0.0966844
0.0224829
0.0383396
0.071618
-0.0708092
-0.0296214
-0.106523
-0.0116819
-0.0335404
-0.0920625
-0.0204627
-0.173511
-0.104481
0.0209947
-0.0722452
-0.0208493
0.00672399
0.0433304
0.169692
0.00134224
0.101918
0.230653
-0.00985164
0.119843
0.124292
0.0298306
0.0811315
0.117748
0.00690456
0.0187714
0.0678408
-0.0333797
-0.0646754
-0.113374
0.0473157
-0.0337404
-0.0518904
0.0430595
-0.0345059
-0.0126902
-0.0348845
0.0342635
0.100059
-0.0930222
0.00529706
0.0700401
0.0224196
0.0264089
-0.00663942
-0.0584401
-0.0569589
-0.0230123
-0.0252278
-0.0997259
-0.0683769
-0.0311762
-0.101093
0.0670702
-0.0291165
-0.0833899
0.00991608
0.0362697
-0.0552206
0.0518416
-0.11096
-0.106634
-0.161666
-0.0834514
-0.0824513
-0.0177116
-0.0171153
-0.104959
-0.0483592
0.0279294
0.0220426
-0.0313984
-0.0150463
-0.0348246
-0.0484555
-0.0108433
-0.00249469
-0.0618862
0.0251517
0.0425617
0.0820491
0.0108022
0.0268864
-0.0573382
-0.0967556
-0.175634
0.00207472
-0.106022
-0.0898825
0.00678173
-0.030755
-0.052548
-0.0515099
-0.0176488
-0.01738
-0.0452412
-0.0941856
-0.113141
0.0297588
0.00758662
0.0213916
0.0559499
-0.0160393
0.0644062
0.0474474
0.020654
-0.0954717
0.0358419
-0.00677457
-0.0808059
0.0175994
-0.0752678
0.0238312
-0.0917142
0.000671544
-0.0765851
-0.0681756
-0.0852288
0.0198275
-0.0156278
-0.051267
-0.0186779
0.00100168
-0.133754
-0.0587581
-0.0514875
-0.0612764
0.0299913
0.111963
-0.105367
-0.136784
-0.0369544
0.0622463
-0.111016
-0.0844045
-0.0443041
-0.0995652
-0.00798932
-0.032708
0.018924
0.0401308
-0.080674
-0.0451838
-0.057499
-0.107599
-0.115682
0.0235505
-0.060191
0.00423301
-0.0515741
0.0237868
-0.072563
0.0667828
-0.0330392
-0.0854665
-0.0749606
-0.00186986
0.00173912
0.0931142
0.057321
0.0966881
0.0119956
-0.0694668
0.019391
0.0803162
-0.0695974
-0.0688059
0.0533239
-0.0328257
0.0517943
0.0599246
-0.104696
-0.0174551
0.0668827
-0.0716281
-0.0806055
-0.0354496
0.0704191
-0.00268482
-0.0396941
-0.0812167
-0.0982227
-0.0775663
-0.0621516
-0.00876461
0.0180996
0.0161623
0.0809438
0.00091201
0.00190744
-0.03269
-0.092376
-0.0243171
-0.120768
0.0445903
0.0501015
-0.0980277
-0.030649
-0.0452534
-0.0944493
0.0280667
0.0547216
-0.00355369
-0.0129429
-0.0665455
-0.0833712
0.0144186
-0.0290108
0.00845666
0.0488607
-0.0535575
-0.0432482
0.087881
-0.0791171
-0.0916263
-0.106549
-0.0684492
-0.0503601
-0.0878779
-0.0845926
-0.0388208
0.0405514
0.0534255
0.0258897
0.0364053
-0.126899
-0.110413
-0.122218
-0.0549071
-0.100819
0.0199989
-0.0855343
-0.0249853
-0.0192904
-0.152916
-0.00803105
0.0721659
-0.113026
0.0610898
0.0187707
-0.0719635
0.123646
0.0734882
-0.0449128
0.0372413
0.123711
-0.0890415
0.0333029
0.00665282
-0.054836
-0.034229
-0.0630488
-0.0613227
-0.0667119
-0.0900435
-0.0989251
-0.128094
-0.109316
-0.160887
0.0356542
0.0721206
-0.0740578
0.0763665
0.0409819
-0.0315755
0.0325307
0.146
-0.129435
0.0672976
0.169024
-0.0545385
0.0592506
-0.00614476
-0.0206349
-0.0348067
-0.0200123
-0.139556
-0.0585048
-0.0220041
-0.103513
-0.0301459
-0.0948362
-0.0448786
0.0380156
-0.026352
-0.102823
0.0111973
0.0245661
-0.105375
0.0377501
0.0948792
-0.0854009
0.0442674
0.0230212
-0.0657657
0.0603127
0.0388374
-0.0650727
0.0212076
0.0722011
-0.0946954
-0.0858841
-0.0597302
-0.117333
-0.0954392
-0.112784
-0.0850771
-0.0499662
-0.00717871
-0.0734468
0.0111235
-0.00914421
-0.0984584
0.00269736
-0.0514037
-0.0748219
0.0401527
0.0460863
-0.0603553
0.052902
0.0740699
-0.0812134
0.0559964
0.076263
-0.105456
0.00864487
0.0518924
-0.104486
-0.00765837
-0.044566
-0.0562178
-0.0449276
-0.0115057
-0.0367075
-0.0811924
-0.0318627
-0.134932
-0.116701
-0.0483527
-0.10609
-0.0404614
0.0388062
-0.0782773
-0.0319084
0.050697
-0.102602
-0.0047759
0.0832099
-0.0906994
-0.00562794
0.0806053
-0.0180679
-0.0776056
-0.0586127
-0.0392755
-0.0649212
-0.00835622
-0.0625245
-0.0620316
-0.0239225
-0.101267
-0.158453
-0.0431078
-0.100787
-0.0972954
-0.0564608
-0.0398069
-0.0425189
-0.0283961
-0.102798
-0.0470185
0.00270214
-0.13826
0.0343206
0.0939305
-0.107143
0.0349429
0.0533451
-0.0420488
-0.0864633
-0.0468542
-0.11948
-0.0799465
-0.0372179
-0.0231658
-0.149138
-0.14639
-0.101917
-0.144373
-0.196192
-0.157903
-0.0777069
-0.0941128
-0.0795543
-0.0113951
0.0686476
-0.100037
0.0222951
0.140497
-0.120349
-0.0206484
-0.0130766
-0.128115
-0.0774166
-0.127021
-0.122343
-0.112481
-0.0742215
-0.0582931
-0.110561
-0.188173
-0.115532
-0.166632
-0.221902
-0.170843
-0.153072
-0.114019
-0.103218
0.0322957
0.0576077
-0.071103
0.115484
0.178421
0.0606834
0.122142
0.152404
0.00357802
0.0973137
0.0997183
0.0549801
0.0212848
-0.0536668
-0.0342856
-0.0783019
-0.0833189
-0.00749986
0.0532007
-0.0277897
0.0194083
-0.0872164
-0.0384095
0.0420856
-0.0561058
-0.0348384
-0.00596044
-0.0630348
0.0214696
0.00481578
0.174926
0.181354
-0.0184387
0.0948805
0.0185056
-0.0445672
-0.0849674
-0.0931633
-0.0437065
-0.0678756
-0.0109926
0.0360598
0.000146717
-0.0359255
0.0256285
-0.0376672
-0.0843158
-0.0410743
-0.0939421
-0.0872574
-0.0753487
-0.0795662
0.0423485
0.02783
0.0915855
0.134038
-0.00986334
0.0278341
0.0106467
-0.0201948
0.0413822
-0.0959189
-0.0270655
-0.0406292
-0.0585964
-0.0438823
0.0411314
0.0690531
0.0456794
0.0150803
-0.0377402
-0.0243799
-0.0964166
0.00771945
-0.0295202
-0.0715123
-0.0262704
0.00397417
-0.00981744
-0.043253
0.0448407
-0.0447326
-0.0102371
0.00741948
0.0373236
-0.00158225
-0.0311727
0.0591318
0.0442903
-0.00852901
-0.0313606
0.0372653
0.0676739
0.00983559
0.0152257
-0.0836228
-0.116051
-0.00888129
0.0117825
-0.0874763
-0.100161
-0.0594931
0.0540247
-0.0791451
0.0134288
-0.0140396
0.00584943
0.0315321
0.134207
0.110589
0.0596537
0.0843935
0.154812
-0.0209952
-0.0464253
0.0568603
-0.033497
-0.0138593
-0.0599592
-0.0619184
-0.103664
-0.110714
0.0238271
-0.0768301
-0.0602636
0.0281979
0.00940808
0.00252999
0.00229513
-0.0575972
0.00874062
0.0906539
0.188593
0.131073
0.0255833
0.0746175
0.179404
0.0242727
0.0458376
-0.00381788
-0.00063941
-0.113741
-0.160027
-0.032972
-0.154875
-0.011373
-0.0360676
-0.0614313
-0.0164141
-0.0458515
0.142378
0.158485
0.0447006
0.0145776
0.0785779
0.0127982
0.161566
0.190367
0.0718489
0.0919904
0.115102
-0.0352367
-0.000812896
-0.0779309
-0.0378236
-0.0513508
-0.144848
0.0361749
-0.0816918
-0.136443
0.0374955
-0.103722
0.0187308
0.025402
0.110162
0.0421349
0.0596451
0.147756
0.144381
0.00255491
0.0400965
0.115322
0.0505827
0.00520001
-0.0363161
-0.0259547
-0.0717237
-0.147898
0.0137236
-0.0658392
-0.086331
-0.0174392
0.0481485
0.0690624
0.0144457
-0.0852787
-0.0148218
0.0341848
0.0759675
-0.0230928
-0.0128189
0.123795
0.0168178
0.059757
0.0733142
-0.0117863
0.119938
0.025072
-0.130951
-0.0210946
-0.088691
-0.00854973
0.0402933
0.0498337
0.00815334
0.116962
0.192565
0.175638
0.0371459
0.110566
0.106664
0.101326
-0.0202686
0.0130117
0.00655415
0.0968739
0.028991
0.0179581
0.084626
-0.0250139
0.0561858
0.0252456
-0.0157706
-0.011814
0.0499116
-0.128613
0.116704
0.0845995
-0.0125132
0.100401
0.166713
0.111963
-0.0231819
0.137137
0.243099
0.0901963
0.0926527
-0.00275744
0.0103582
0.0291214
-0.0797651
0.0343833
0.0657205
-0.0484168
-0.0131415
0.060523
0.0322618
0.0591708
0.0558614
-0.0542604
0.0231028
0.0106858
-0.0853939
0.126303
0.135551
0.141821
-0.0234858
0.155203
0.172323
-0.0140681
-0.0201117
-0.149072
0.000739382
0.0171699
-0.0494952
0.0188518
0.0773684
-0.0254408
-0.0196943
0.0511836
-0.0525852
-0.040083
-0.0116642
-0.0571439
-0.00987986
0.106642
0.0445003
0.0861453
0.150493
0.100127
0.0413063
0.219989
0.125761
0.0154101
0.0613357
-0.0750621
0.00246548
0.115544
0.0100436
0.0315197
0.0842749
-0.0314308
0.0366373
0.0526847
-0.010625
0.050467
0.0653281
-0.0284215
0.0172831
0.0936628
0.141117
0.0200388
0.164217
0.0780259
0.0876252
0.0590527
0.0560024
0.0235005
0.0630138
-0.0309353
0.0729855
0.077345
0.0323001
0.0499661
0.0968935
0.0175834
0.0617828
-0.0377627
0.00652425
0.0722494
0.109226
0.0780135
-0.0370729
0.100315
0.0667072
0.0236753
0.0297066
0.079352
0.00796475
-0.0177285
0.0358656
0.0058079
0.0794196
-0.000509053
0.0449833
0.0808786
0.00968154
0.000751282
0.0248391
0.0245131
0.103304
-0.0233669
0.0839553
0.0104418
0.0601698
0.0165196
0.0244231
0.0250789
0.0181205
0.008526
-0.0602079
-0.0488161
-0.0111711
0.0225029
0.086142
-0.0600401
0.11399
0.0222468
-0.00928613
0.135422
0.0910519
0.0281155
0.0329015
0.0423455
0.0236202
0.0470601
-0.0455899
-0.0657425
0.0968113
0.0951036
-0.0178494
-0.0112033
0.00232992
-0.0276334
-0.000140433
0.0112949
0.0345947
0.144363
0.0457267
-0.0628346
-0.146732
-0.138108
-0.0147606
-0.0932708
-0.163976
-0.0847068
-0.0523471
-0.064129
-0.00317673
-0.158463
-0.173568
0.0149064
-0.0352186
-0.0491792
-0.0330797
-0.087421
-0.0837659
-0.0549452
0.0410866
0.093508
0.0383049
0.23109
0.198135
-0.0628498
-0.121535
-0.0949192
-0.103504
-0.103454
-0.0669074
-0.0475857
-0.0968945
-0.110842
-0.018244
-0.138603
-0.0830424
-0.110045
-0.183781
-0.166905
-0.0581831
-0.060783
-0.078122
0.0497335
0.086009
0.0266225
-0.0107568
0.153512
0.233404
-0.0704943
-0.138866
-0.0783927
0.0159375
0.0172034
0.122169
-0.0105405
-0.0589736
-0.0393785
-0.0277563
-0.0994749
-0.024201
-0.105351
-0.143718
-0.177645
-0.0115889
-0.0664667
-0.206249
-0.00920775
0.0112196
-0.00879415
0.00669957
0.0232385
0.0642236
0.0418779
0.0303763
0.00813799
0.0622231
0.0496668
0.0608576
-0.032825
0.0204094
0.120031
0.0544884
-0.0279739
-0.0770683
-0.0358377
-0.104076
-0.10745
0.0173364
-0.130911
-0.1351
-0.0981268
-0.0615625
-0.0990154
0.026968
-0.0344797
-0.0142729
-0.0441228
-0.0257598
-0.0235967
-0.00493554
0.0729057
0.154553
0.0163081
-0.0244879
0.0214534
-0.0674066
-0.0584539
0.0243855
-0.0368953
0.00535291
-0.0733764
0.0423493
-0.0784666
-0.0328992
-0.0726865
-0.0939578
-0.00210182
-0.0257534
-0.0795686
-0.0519989
0.0409052
-0.0255252
-0.0382211
0.0337269
-0.0319383
0.033412
0.0551346
-0.00415629
0.0715751
-0.0461197
-0.00684022
-0.0168729
-0.0415309
0.0430062
-0.0097421
-0.0258699
0.00646098
-0.0487392
-0.0588583
-0.11852
-0.0821621
-0.062864
0.0320975
-0.0251097
0.0207472
-0.0115901
-0.0687078
0.0554798
-0.0188632
-0.0169165
-0.0262984
-0.0517842
0.0305769
0.022267
-0.11941
-0.0787739
0.0195004
0.0220442
-0.0757818
-0.054318
-0.0549023
-0.0171006
0.00794975
0.026674
-0.0731442
-0.035156
-0.060256
-0.0586189
0.00160169
-0.0980294
-0.0793913
-0.0848583
-0.075085
-0.0317058
0.0490764
-0.000133542
0.00446968
0.0210245
-0.024713
-0.0736373
0.0349748
-0.141121
-0.155282
0.00485954
0.00252056
-0.0341365
-0.0572296
-0.00330718
-0.0560246
-0.00352114
-0.0468295
0.00269504
0.00822375
0.0346118
-0.0753861
0.0145977
-0.0580323
-0.0829633
0.018233
-0.0444874
-0.129905
0.0205157
0.0122444
-0.120724
0.101189
-0.0625212
-0.0744211
0.0305096
0.00675893
-0.134012
0.0669947
-0.0733955
-0.150362
0.0759834
-0.0197597
-0.173374
0.0196284
-0.0914808
-0.160156
-0.00273059
-0.0284838
-0.0981397
0.0811644
-0.0050971
-0.157528
0.0980247
-0.0588503
-0.113897
-0.000142244
-0.0239465
0.00669217
0.0712366
0.0586888
-0.0688903
0.123483
-0.0622441
-0.0703485
0.0349144
-0.0646608
-0.12648
-0.00187765
-0.0186781
-0.130661
0.116556
0.017814
-0.0718734
0.0361763
-0.0700493
-0.099246
0.00420142
-0.0897237
-0.0768989
0.0377827
-0.0139232
-0.0724121
0.0962634
0.0671145
0.00686316
0.0439337
0.0514864
0.0085289
0.0714373
-0.0473365
-0.0364073
0.0622494
0.0136408
-0.0257891
0.0324341
-0.0305733
-0.064147
0.07668
-0.0781461
-0.0980518
0.070075
-0.0640983
-0.0984481
0.0892863
0.0599485
0.0274997
0.0896329
0.0947077
0.0992533
0.0750959
0.0703214
0.0997645
0.0272446
0.0247482
0.0223452
0.0372867
0.0955204
0.137394
0.101553
-0.0205544
0.00691584
0.0858495
-0.0842696
-0.0448794
0.0179296
-0.052635
0.00505689
0.058132
0.0520489
0.0674876
0.0814293
0.0401167
0.051707
0.0697851
0.0102335
0.107108
0.0517726
-0.00158352
0.034758
0.144134
0.0673286
0.137882
0.103328
0.0705028
0.13058
0.0598837
-0.00675405
0.0830536
0.0924569
0.00471127
0.0173966
0.0111327
0.0062862
0.0500139
0.140978
0.0316392
0.0935949
0.083552
0.057978
-0.0304855
0.0248028
0.0130497
-0.0411614
0.0876962
0.176193
0.206771
0.121327
0.148178
0.181918
0.0568032
0.0873133
0.165586
0.0914236
0.0126288
0.0135459
0.0896057
-0.0317892
0.00315715
0.0347753
0.0378331
0.0381847
0.0688455
0.0644583
0.115984
0.0413856
0.00587219
-0.0129253
0.104248
0.132345
0.199728
0.0693376
0.0676776
0.13408
0.060098
0.169492
0.231521
0.109301
0.126402
0.128076
0.122862
0.0103932
0.0880219
0.010831
-0.0251642
0.0419118
0.0596209
-0.0413249
-0.0171014
0.0794794
-8.64684e-08
0.0803677
